{
  "version": "1.0.0",
  "architecture": {
    "inputSize": 12,
    "hidden1Size": 8,
    "hidden2Size": 6,
    "outputSize": 3
  },
  "generation": 0,
  "bestFitness": 0,
  "weights": {
    "inputToHidden1": [
      0.1728108609066077,
      0.4366433774875291,
      -0.06488124439538301,
      0.650999086914547,
      -0.9573291227410501,
      -0.2149394281678516,
      0.6949858764586312,
      0.2752387816617019,
      0.23720738788161322,
      0.9989518548625382,
      0.42597933768100105,
      -0.25570509757766735,
      0.8892419562386247,
      -0.1580389092465726,
      -0.10095264667879933,
      0.2062011982283587,
      -0.003985026814328441,
      -0.2166322457025882,
      0.04799237578343085,
      -0.9363556110585167,
      -0.5120895649798094,
      -0.46045197234585866,
      -0.5107323472752991,
      0.6231893789196883,
      0.1477049323857449,
      0.7076665234914412,
      0.08007687544520437,
      0.5180007395350379,
      -0.28659222727954803,
      0.25491910589459943,
      -0.5902989362342326,
      0.7102149261344988,
      -0.3311886239919089,
      0.6442871978057241,
      0.7475024123772478,
      -0.9804649210198195,
      0.5944969814376593,
      0.7203273947072459,
      -0.944643475820413,
      -0.26983534701786627,
      -0.9116021830583543,
      -0.8468953913604451,
      0.2951039644450928,
      0.8722258452047849,
      -0.3721737395591176,
      0.9253478776918231,
      -0.34563471155647574,
      0.6753808145922919,
      0.6258109413685882,
      -0.7778703924020722,
      -0.6525812446616701,
      -0.5912819589886149,
      -0.30630718478686836,
      0.1869695142448451,
      -0.45790778633340357,
      -0.746724617758896,
      0.521892942274536,
      0.4485696217051822,
      -0.4746384093563101,
      0.6730659421984575,
      -0.25468807435343854,
      -0.8131526422958151,
      -0.9318410752249746,
      -0.5663036919991062,
      -0.10686175148796984,
      -0.9325999425659244,
      0.3808326308180505,
      -0.27706434895314813,
      0.09086523166920801,
      -0.557141141831741,
      -0.21672705690119387,
      -0.6813284252133356,
      0.23862905987767635,
      0.07739669052952824,
      -0.433721930630768,
      -0.6178407804360124,
      -0.9638391768619687,
      0.7024042435296975,
      0.4951876124056789,
      0.5041777249533825,
      0.10148738612448449,
      0.4109940463030348,
      -0.4694997114073518,
      0.13182268258228746,
      -0.34225522816841836,
      0.33324108858024437,
      -0.20925221254547188,
      -0.24633319684338928,
      0.09312929086703692,
      0.5842604947791856,
      0.8298827811199296,
      -0.0635060452057421,
      0.8380101832052271,
      0.7042966547698017,
      -0.714817265145814,
      -0.44173032620294994
    ],
    "hidden1ToHidden2": [
      -0.21894431109767698,
      -0.6777679792641151,
      -0.9939123895015329,
      0.27447022017576317,
      0.9938226610662593,
      -0.7187329604461836,
      -0.29282820066900905,
      0.45928568048823837,
      0.6891315509283649,
      0.4260689806759088,
      -0.23457001217433482,
      -0.9902370364308735,
      0.45574375481934326,
      -0.6537519477001201,
      0.5368474300019728,
      -0.49680145778241647,
      0.85858897455798,
      -0.6296832856987022,
      0.137222844235374,
      -0.19718603025544423,
      -0.5031197585208076,
      -0.16580171546796563,
      -0.32508706744782123,
      0.8522254989408327,
      0.990001505059676,
      -0.5416247462784929,
      0.41364513421428106,
      -0.8704002808930433,
      0.7378872577962612,
      0.42300426285067494,
      0.38778373036177083,
      -0.9675874464626297,
      0.7572370775378088,
      0.8249466543660082,
      0.26448933093415117,
      -0.977490355563762,
      0.3463125372399001,
      -0.6818960848992368,
      -0.6936078930020788,
      -0.2710437003477588,
      0.29549881785148746,
      0.3724521430879019,
      0.8904213833271237,
      0.835462979396123,
      0.700792970815096,
      -0.22866241450242542,
      -0.7835684709825732,
      0.6450008559055533
    ],
    "hidden2ToOutput": [
      0.3697687149381812,
      -0.9873751436590277,
      0.9050136479711441,
      0.6288063844769896,
      0.04913417052671787,
      -0.5976785670142848,
      0.5602787607429027,
      -0.1360076420268499,
      0.5632699441378803,
      -0.28864431612749586,
      -0.5870860444315738,
      -0.8286839523469622,
      -0.8806242562242492,
      0.595925525070911,
      0.31216201647635744,
      -0.9861101112739405,
      0.2306740840035877,
      -0.04169011633390197
    ],
    "biasHidden1": [
      -0.43717607592075214,
      -0.765674320353875,
      -0.38905856406379113,
      -0.04636975204059257,
      0.013331820806726569,
      -0.7509522696313553,
      -0.6647456393192941,
      0.961687756767243
    ],
    "biasHidden2": [
      -0.26543746891813425,
      0.6352535377413764,
      -0.19105865735403849,
      -0.27692081566374926,
      -0.10926525944800858,
      -0.45463528181121005
    ],
    "biasOutput": [
      -0.4344760182499485,
      -0.04298110385365793,
      -0.8362152185058389
    ]
  },
  "metadata": {
    "createdAt": "2025-12-04T10:25:09.081Z",
    "lastUpdated": "2025-12-04T10:25:09.081Z",
    "totalGenerations": 0,
    "averageFitness": 0
  }
}